digraph Tree {
node [shape=box] ;
0 [label="X[96] <= 2640653.75\nentropy = 0.123\nsamples = 48000\nvalue = [47192, 808]"] ;
1 [label="X[83] <= 7867932.0\nentropy = 0.025\nsamples = 45640\nvalue = [45529, 111]"] ;
0 -> 1 [labeldistance=2.5, labelangle=45, headlabel="True"] ;
2 [label="X[115] <= 301082.0\nentropy = 0.008\nsamples = 43472\nvalue = [43441, 31]"] ;
1 -> 2 ;
3 [label="X[165] <= 346202.719\nentropy = 0.005\nsamples = 41927\nvalue = [41910, 17]"] ;
2 -> 3 ;
4 [label="X[107] <= 1965.0\nentropy = 0.004\nsamples = 39272\nvalue = [39261, 11]"] ;
3 -> 4 ;
5 [label="X[167] <= 77897.0\nentropy = 0.006\nsamples = 22778\nvalue = [22767, 11]"] ;
4 -> 5 ;
6 [label="X[107] <= 1963.0\nentropy = 0.005\nsamples = 22765\nvalue = [22756, 9]"] ;
5 -> 6 ;
7 [label="X[12] <= 7289.0\nentropy = 0.005\nsamples = 22761\nvalue = [22753, 8]"] ;
6 -> 7 ;
8 [label="entropy = 0.0\nsamples = 10413\nvalue = [10413, 0]"] ;
7 -> 8 ;
9 [label="X[12] <= 7292.0\nentropy = 0.008\nsamples = 12348\nvalue = [12340, 8]"] ;
7 -> 9 ;
10 [label="entropy = 0.0\nsamples = 1\nvalue = [0, 1]"] ;
9 -> 10 ;
11 [label="X[38] <= 82856.0\nentropy = 0.007\nsamples = 12347\nvalue = [12340, 7]"] ;
9 -> 11 ;
12 [label="X[38] <= 82826.0\nentropy = 0.011\nsamples = 7563\nvalue = [7556, 7]"] ;
11 -> 12 ;
13 [label="X[132] <= 331.0\nentropy = 0.009\nsamples = 7562\nvalue = [7556, 6]"] ;
12 -> 13 ;
14 [label="X[43] <= 7.0\nentropy = 0.002\nsamples = 5887\nvalue = [5886, 1]"] ;
13 -> 14 ;
15 [label="X[85] <= 1894.0\nentropy = 0.064\nsamples = 132\nvalue = [131, 1]"] ;
14 -> 15 ;
16 [label="entropy = 0.0\nsamples = 130\nvalue = [130, 0]"] ;
15 -> 16 ;
17 [label="X[58] <= 235.0\nentropy = 1.0\nsamples = 2\nvalue = [1, 1]"] ;
15 -> 17 ;
18 [label="entropy = 0.0\nsamples = 1\nvalue = [0, 1]"] ;
17 -> 18 ;
19 [label="entropy = 0.0\nsamples = 1\nvalue = [1, 0]"] ;
17 -> 19 ;
20 [label="entropy = 0.0\nsamples = 5755\nvalue = [5755, 0]"] ;
14 -> 20 ;
21 [label="X[113] <= 1215.0\nentropy = 0.029\nsamples = 1675\nvalue = [1670, 5]"] ;
13 -> 21 ;
22 [label="X[92] <= 17.0\nentropy = 0.14\nsamples = 152\nvalue = [149, 3]"] ;
21 -> 22 ;
23 [label="X[63] <= 4.0\nentropy = 0.431\nsamples = 34\nvalue = [31, 3]"] ;
22 -> 23 ;
24 [label="X[79] <= 39940.0\nentropy = 0.985\nsamples = 7\nvalue = [4, 3]"] ;
23 -> 24 ;
25 [label="entropy = 0.0\nsamples = 4\nvalue = [4, 0]"] ;
24 -> 25 ;
26 [label="entropy = 0.0\nsamples = 3\nvalue = [0, 3]"] ;
24 -> 26 ;
27 [label="entropy = 0.0\nsamples = 27\nvalue = [27, 0]"] ;
23 -> 27 ;
28 [label="entropy = 0.0\nsamples = 118\nvalue = [118, 0]"] ;
22 -> 28 ;
29 [label="X[10] <= 421950.0\nentropy = 0.014\nsamples = 1523\nvalue = [1521, 2]"] ;
21 -> 29 ;
30 [label="entropy = 0.0\nsamples = 1234\nvalue = [1234, 0]"] ;
29 -> 30 ;
31 [label="X[84] <= 3358.0\nentropy = 0.06\nsamples = 289\nvalue = [287, 2]"] ;
29 -> 31 ;
32 [label="X[31] <= 59.0\nentropy = 0.567\nsamples = 15\nvalue = [13, 2]"] ;
31 -> 32 ;
33 [label="entropy = 0.0\nsamples = 2\nvalue = [0, 2]"] ;
32 -> 33 ;
34 [label="entropy = 0.0\nsamples = 13\nvalue = [13, 0]"] ;
32 -> 34 ;
35 [label="entropy = 0.0\nsamples = 274\nvalue = [274, 0]"] ;
31 -> 35 ;
36 [label="entropy = 0.0\nsamples = 1\nvalue = [0, 1]"] ;
12 -> 36 ;
37 [label="entropy = 0.0\nsamples = 4784\nvalue = [4784, 0]"] ;
11 -> 37 ;
38 [label="X[125] <= 2263379.0\nentropy = 0.811\nsamples = 4\nvalue = [3, 1]"] ;
6 -> 38 ;
39 [label="entropy = 0.0\nsamples = 1\nvalue = [0, 1]"] ;
38 -> 39 ;
40 [label="entropy = 0.0\nsamples = 3\nvalue = [3, 0]"] ;
38 -> 40 ;
41 [label="X[0] <= 62860.0\nentropy = 0.619\nsamples = 13\nvalue = [11, 2]"] ;
5 -> 41 ;
42 [label="entropy = 0.0\nsamples = 11\nvalue = [11, 0]"] ;
41 -> 42 ;
43 [label="entropy = 0.0\nsamples = 2\nvalue = [0, 2]"] ;
41 -> 43 ;
44 [label="entropy = 0.0\nsamples = 16494\nvalue = [16494, 0]"] ;
4 -> 44 ;
45 [label="X[87] <= 6360.0\nentropy = 0.023\nsamples = 2655\nvalue = [2649, 6]"] ;
3 -> 45 ;
46 [label="X[156] <= 411.32\nentropy = 0.592\nsamples = 14\nvalue = [12, 2]"] ;
45 -> 46 ;
47 [label="entropy = 0.0\nsamples = 2\nvalue = [0, 2]"] ;
46 -> 47 ;
48 [label="entropy = 0.0\nsamples = 12\nvalue = [12, 0]"] ;
46 -> 48 ;
49 [label="X[85] <= 101866.418\nentropy = 0.016\nsamples = 2641\nvalue = [2637, 4]"] ;
45 -> 49 ;
50 [label="entropy = 0.0\nsamples = 2089\nvalue = [2089, 0]"] ;
49 -> 50 ;
51 [label="X[18] <= 8668.0\nentropy = 0.062\nsamples = 552\nvalue = [548, 4]"] ;
49 -> 51 ;
52 [label="X[102] <= 63635.0\nentropy = 0.049\nsamples = 551\nvalue = [548, 3]"] ;
51 -> 52 ;
53 [label="X[166] <= 277668.0\nentropy = 0.276\nsamples = 42\nvalue = [40, 2]"] ;
52 -> 53 ;
54 [label="X[37] <= 21856.0\nentropy = 0.811\nsamples = 8\nvalue = [6, 2]"] ;
53 -> 54 ;
55 [label="entropy = 0.0\nsamples = 6\nvalue = [6, 0]"] ;
54 -> 55 ;
56 [label="entropy = 0.0\nsamples = 2\nvalue = [0, 2]"] ;
54 -> 56 ;
57 [label="entropy = 0.0\nsamples = 34\nvalue = [34, 0]"] ;
53 -> 57 ;
58 [label="X[95] <= 98968.285\nentropy = 0.02\nsamples = 509\nvalue = [508, 1]"] ;
52 -> 58 ;
59 [label="entropy = 0.0\nsamples = 367\nvalue = [367, 0]"] ;
58 -> 59 ;
60 [label="X[0] <= 81642.0\nentropy = 0.06\nsamples = 142\nvalue = [141, 1]"] ;
58 -> 60 ;
61 [label="entropy = 0.0\nsamples = 95\nvalue = [95, 0]"] ;
60 -> 61 ;
62 [label="X[0] <= 83778.0\nentropy = 0.149\nsamples = 47\nvalue = [46, 1]"] ;
60 -> 62 ;
63 [label="entropy = 0.0\nsamples = 1\nvalue = [0, 1]"] ;
62 -> 63 ;
64 [label="entropy = 0.0\nsamples = 46\nvalue = [46, 0]"] ;
62 -> 64 ;
65 [label="entropy = 0.0\nsamples = 1\nvalue = [0, 1]"] ;
51 -> 65 ;
66 [label="X[32] <= 3636514.0\nentropy = 0.075\nsamples = 1545\nvalue = [1531, 14]"] ;
2 -> 66 ;
67 [label="X[124] <= 141.0\nentropy = 0.061\nsamples = 1542\nvalue = [1531, 11]"] ;
66 -> 67 ;
68 [label="X[125] <= 1206257.0\nentropy = 0.431\nsamples = 68\nvalue = [62, 6]"] ;
67 -> 68 ;
69 [label="entropy = 0.0\nsamples = 45\nvalue = [45, 0]"] ;
68 -> 69 ;
70 [label="X[128] <= 25.0\nentropy = 0.828\nsamples = 23\nvalue = [17, 6]"] ;
68 -> 70 ;
71 [label="entropy = 0.0\nsamples = 4\nvalue = [0, 4]"] ;
70 -> 71 ;
72 [label="X[158] <= 1942201.0\nentropy = 0.485\nsamples = 19\nvalue = [17, 2]"] ;
70 -> 72 ;
73 [label="entropy = 0.0\nsamples = 17\nvalue = [17, 0]"] ;
72 -> 73 ;
74 [label="entropy = 0.0\nsamples = 2\nvalue = [0, 2]"] ;
72 -> 74 ;
75 [label="X[59] <= 1853246.0\nentropy = 0.033\nsamples = 1474\nvalue = [1469, 5]"] ;
67 -> 75 ;
76 [label="X[153] <= 1313.0\nentropy = 0.021\nsamples = 1461\nvalue = [1458, 3]"] ;
75 -> 76 ;
77 [label="X[107] <= 773103.0\nentropy = 0.015\nsamples = 1460\nvalue = [1458, 2]"] ;
76 -> 77 ;
78 [label="X[36] <= 257031.0\nentropy = 0.008\nsamples = 1458\nvalue = [1457, 1]"] ;
77 -> 78 ;
79 [label="entropy = 0.0\nsamples = 1453\nvalue = [1453, 0]"] ;
78 -> 79 ;
80 [label="X[18] <= 65.0\nentropy = 0.722\nsamples = 5\nvalue = [4, 1]"] ;
78 -> 80 ;
81 [label="entropy = 0.0\nsamples = 4\nvalue = [4, 0]"] ;
80 -> 81 ;
82 [label="entropy = 0.0\nsamples = 1\nvalue = [0, 1]"] ;
80 -> 82 ;
83 [label="X[73] <= 218000.0\nentropy = 1.0\nsamples = 2\nvalue = [1, 1]"] ;
77 -> 83 ;
84 [label="entropy = 0.0\nsamples = 1\nvalue = [1, 0]"] ;
83 -> 84 ;
85 [label="entropy = 0.0\nsamples = 1\nvalue = [0, 1]"] ;
83 -> 85 ;
86 [label="entropy = 0.0\nsamples = 1\nvalue = [0, 1]"] ;
76 -> 86 ;
87 [label="X[13] <= 602712.0\nentropy = 0.619\nsamples = 13\nvalue = [11, 2]"] ;
75 -> 87 ;
88 [label="entropy = 0.0\nsamples = 2\nvalue = [0, 2]"] ;
87 -> 88 ;
89 [label="entropy = 0.0\nsamples = 11\nvalue = [11, 0]"] ;
87 -> 89 ;
90 [label="entropy = 0.0\nsamples = 3\nvalue = [0, 3]"] ;
66 -> 90 ;
91 [label="X[8] <= 22956.0\nentropy = 0.228\nsamples = 2168\nvalue = [2088, 80]"] ;
1 -> 91 ;
92 [label="X[25] <= 2391311.0\nentropy = 0.151\nsamples = 2073\nvalue = [2028, 45]"] ;
91 -> 92 ;
93 [label="X[106] <= 13147.0\nentropy = 0.11\nsamples = 1992\nvalue = [1963, 29]"] ;
92 -> 93 ;
94 [label="X[38] <= 575.0\nentropy = 0.52\nsamples = 77\nvalue = [68, 9]"] ;
93 -> 94 ;
95 [label="X[152] <= 49320.0\nentropy = 0.946\nsamples = 22\nvalue = [14, 8]"] ;
94 -> 95 ;
96 [label="X[116] <= 520080.0\nentropy = 0.845\nsamples = 11\nvalue = [3, 8]"] ;
95 -> 96 ;
97 [label="entropy = 0.0\nsamples = 7\nvalue = [0, 7]"] ;
96 -> 97 ;
98 [label="X[82] <= 9611865.0\nentropy = 0.811\nsamples = 4\nvalue = [3, 1]"] ;
96 -> 98 ;
99 [label="entropy = 0.0\nsamples = 3\nvalue = [3, 0]"] ;
98 -> 99 ;
100 [label="entropy = 0.0\nsamples = 1\nvalue = [0, 1]"] ;
98 -> 100 ;
101 [label="entropy = 0.0\nsamples = 11\nvalue = [11, 0]"] ;
95 -> 101 ;
102 [label="X[32] <= 231467.0\nentropy = 0.131\nsamples = 55\nvalue = [54, 1]"] ;
94 -> 102 ;
103 [label="entropy = 0.0\nsamples = 54\nvalue = [54, 0]"] ;
102 -> 103 ;
104 [label="entropy = 0.0\nsamples = 1\nvalue = [0, 1]"] ;
102 -> 104 ;
105 [label="X[25] <= 1159918.0\nentropy = 0.084\nsamples = 1915\nvalue = [1895, 20]"] ;
93 -> 105 ;
106 [label="X[167] <= 69820.0\nentropy = 0.016\nsamples = 1342\nvalue = [1340, 2]"] ;
105 -> 106 ;
107 [label="entropy = 0.0\nsamples = 1199\nvalue = [1199, 0]"] ;
106 -> 107 ;
108 [label="X[64] <= 4221.0\nentropy = 0.106\nsamples = 143\nvalue = [141, 2]"] ;
106 -> 108 ;
109 [label="entropy = 0.0\nsamples = 128\nvalue = [128, 0]"] ;
108 -> 109 ;
110 [label="X[46] <= 3217683.0\nentropy = 0.567\nsamples = 15\nvalue = [13, 2]"] ;
108 -> 110 ;
111 [label="X[13] <= 2819721.0\nentropy = 0.918\nsamples = 3\nvalue = [1, 2]"] ;
110 -> 111 ;
112 [label="entropy = 0.0\nsamples = 2\nvalue = [0, 2]"] ;
111 -> 112 ;
113 [label="entropy = 0.0\nsamples = 1\nvalue = [1, 0]"] ;
111 -> 113 ;
114 [label="entropy = 0.0\nsamples = 12\nvalue = [12, 0]"] ;
110 -> 114 ;
115 [label="X[76] <= 218180.0\nentropy = 0.201\nsamples = 573\nvalue = [555, 18]"] ;
105 -> 115 ;
116 [label="X[32] <= 6105.824\nentropy = 0.377\nsamples = 233\nvalue = [216, 17]"] ;
115 -> 116 ;
117 [label="X[71] <= 235910.0\nentropy = 0.317\nsamples = 227\nvalue = [214, 13]"] ;
116 -> 117 ;
118 [label="X[163] <= 3454482.0\nentropy = 0.159\nsamples = 172\nvalue = [168, 4]"] ;
117 -> 118 ;
119 [label="X[60] <= 1162760.0\nentropy = 0.055\nsamples = 159\nvalue = [158, 1]"] ;
118 -> 119 ;
120 [label="entropy = 0.0\nsamples = 156\nvalue = [156, 0]"] ;
119 -> 120 ;
121 [label="X[72] <= 201230.0\nentropy = 0.918\nsamples = 3\nvalue = [2, 1]"] ;
119 -> 121 ;
122 [label="entropy = 0.0\nsamples = 2\nvalue = [2, 0]"] ;
121 -> 122 ;
123 [label="entropy = 0.0\nsamples = 1\nvalue = [0, 1]"] ;
121 -> 123 ;
124 [label="X[63] <= 957.0\nentropy = 0.779\nsamples = 13\nvalue = [10, 3]"] ;
118 -> 124 ;
125 [label="entropy = 0.0\nsamples = 9\nvalue = [9, 0]"] ;
124 -> 125 ;
126 [label="X[149] <= 12628260.0\nentropy = 0.811\nsamples = 4\nvalue = [1, 3]"] ;
124 -> 126 ;
127 [label="entropy = 0.0\nsamples = 1\nvalue = [1, 0]"] ;
126 -> 127 ;
128 [label="entropy = 0.0\nsamples = 3\nvalue = [0, 3]"] ;
126 -> 128 ;
129 [label="X[164] <= 1266362.0\nentropy = 0.643\nsamples = 55\nvalue = [46, 9]"] ;
117 -> 129 ;
130 [label="X[150] <= 337897.0\nentropy = 0.281\nsamples = 41\nvalue = [39, 2]"] ;
129 -> 130 ;
131 [label="X[79] <= 181800.0\nentropy = 0.918\nsamples = 6\nvalue = [4, 2]"] ;
130 -> 131 ;
132 [label="entropy = 0.0\nsamples = 4\nvalue = [4, 0]"] ;
131 -> 132 ;
133 [label="entropy = 0.0\nsamples = 2\nvalue = [0, 2]"] ;
131 -> 133 ;
134 [label="entropy = 0.0\nsamples = 35\nvalue = [35, 0]"] ;
130 -> 134 ;
135 [label="X[24] <= 2814246.0\nentropy = 1.0\nsamples = 14\nvalue = [7, 7]"] ;
129 -> 135 ;
136 [label="entropy = 0.0\nsamples = 7\nvalue = [0, 7]"] ;
135 -> 136 ;
137 [label="entropy = 0.0\nsamples = 7\nvalue = [7, 0]"] ;
135 -> 137 ;
138 [label="X[152] <= 31462.0\nentropy = 0.918\nsamples = 6\nvalue = [2, 4]"] ;
116 -> 138 ;
139 [label="entropy = 0.0\nsamples = 2\nvalue = [2, 0]"] ;
138 -> 139 ;
140 [label="entropy = 0.0\nsamples = 4\nvalue = [0, 4]"] ;
138 -> 140 ;
141 [label="X[92] <= 2340.0\nentropy = 0.029\nsamples = 340\nvalue = [339, 1]"] ;
115 -> 141 ;
142 [label="entropy = 0.0\nsamples = 339\nvalue = [339, 0]"] ;
141 -> 142 ;
143 [label="entropy = 0.0\nsamples = 1\nvalue = [0, 1]"] ;
141 -> 143 ;
144 [label="X[18] <= 135.0\nentropy = 0.717\nsamples = 81\nvalue = [65, 16]"] ;
92 -> 144 ;
145 [label="X[163] <= 2316276.0\nentropy = 0.483\nsamples = 67\nvalue = [60, 7]"] ;
144 -> 145 ;
146 [label="entropy = 0.0\nsamples = 46\nvalue = [46, 0]"] ;
145 -> 146 ;
147 [label="X[14] <= 30460.0\nentropy = 0.918\nsamples = 21\nvalue = [14, 7]"] ;
145 -> 147 ;
148 [label="X[39] <= 9665009.0\nentropy = 0.946\nsamples = 11\nvalue = [4, 7]"] ;
147 -> 148 ;
149 [label="entropy = 0.0\nsamples = 7\nvalue = [0, 7]"] ;
148 -> 149 ;
150 [label="entropy = 0.0\nsamples = 4\nvalue = [4, 0]"] ;
148 -> 150 ;
151 [label="entropy = 0.0\nsamples = 10\nvalue = [10, 0]"] ;
147 -> 151 ;
152 [label="X[64] <= 1340.888\nentropy = 0.94\nsamples = 14\nvalue = [5, 9]"] ;
144 -> 152 ;
153 [label="X[61] <= 426.0\nentropy = 0.863\nsamples = 7\nvalue = [5, 2]"] ;
152 -> 153 ;
154 [label="entropy = 0.0\nsamples = 2\nvalue = [0, 2]"] ;
153 -> 154 ;
155 [label="entropy = 0.0\nsamples = 5\nvalue = [5, 0]"] ;
153 -> 155 ;
156 [label="entropy = 0.0\nsamples = 7\nvalue = [0, 7]"] ;
152 -> 156 ;
157 [label="X[38] <= 24598.0\nentropy = 0.949\nsamples = 95\nvalue = [60, 35]"] ;
91 -> 157 ;
158 [label="X[84] <= 44516.5\nentropy = 0.784\nsamples = 30\nvalue = [7, 23]"] ;
157 -> 158 ;
159 [label="X[143] <= 64029.0\nentropy = 0.65\nsamples = 6\nvalue = [5, 1]"] ;
158 -> 159 ;
160 [label="entropy = 0.0\nsamples = 5\nvalue = [5, 0]"] ;
159 -> 160 ;
161 [label="entropy = 0.0\nsamples = 1\nvalue = [0, 1]"] ;
159 -> 161 ;
162 [label="X[101] <= 4797796.0\nentropy = 0.414\nsamples = 24\nvalue = [2, 22]"] ;
158 -> 162 ;
163 [label="entropy = 0.0\nsamples = 22\nvalue = [0, 22]"] ;
162 -> 163 ;
164 [label="entropy = 0.0\nsamples = 2\nvalue = [2, 0]"] ;
162 -> 164 ;
165 [label="X[94] <= 3854166.25\nentropy = 0.69\nsamples = 65\nvalue = [53, 12]"] ;
157 -> 165 ;
166 [label="entropy = 0.0\nsamples = 5\nvalue = [0, 5]"] ;
165 -> 166 ;
167 [label="X[43] <= 11281.0\nentropy = 0.52\nsamples = 60\nvalue = [53, 7]"] ;
165 -> 167 ;
168 [label="entropy = 0.0\nsamples = 30\nvalue = [30, 0]"] ;
167 -> 168 ;
169 [label="X[66] <= 3.0\nentropy = 0.784\nsamples = 30\nvalue = [23, 7]"] ;
167 -> 169 ;
170 [label="entropy = 0.0\nsamples = 4\nvalue = [0, 4]"] ;
169 -> 170 ;
171 [label="X[60] <= 266078.0\nentropy = 0.516\nsamples = 26\nvalue = [23, 3]"] ;
169 -> 171 ;
172 [label="entropy = 0.0\nsamples = 18\nvalue = [18, 0]"] ;
171 -> 172 ;
173 [label="X[79] <= 167740.0\nentropy = 0.954\nsamples = 8\nvalue = [5, 3]"] ;
171 -> 173 ;
174 [label="X[59] <= 682369.0\nentropy = 0.811\nsamples = 4\nvalue = [1, 3]"] ;
173 -> 174 ;
175 [label="entropy = 0.0\nsamples = 3\nvalue = [0, 3]"] ;
174 -> 175 ;
176 [label="entropy = 0.0\nsamples = 1\nvalue = [1, 0]"] ;
174 -> 176 ;
177 [label="entropy = 0.0\nsamples = 4\nvalue = [4, 0]"] ;
173 -> 177 ;
178 [label="X[7] <= 4754.0\nentropy = 0.876\nsamples = 2360\nvalue = [1663, 697]"] ;
0 -> 178 [labeldistance=2.5, labelangle=-45, headlabel="False"] ;
179 [label="X[94] <= 23638487.0\nentropy = 0.776\nsamples = 2126\nvalue = [1640, 486]"] ;
178 -> 179 ;
180 [label="X[38] <= 9796.0\nentropy = 0.401\nsamples = 954\nvalue = [878, 76]"] ;
179 -> 180 ;
181 [label="X[8] <= 24680.0\nentropy = 0.783\nsamples = 249\nvalue = [191, 58]"] ;
180 -> 181 ;
182 [label="X[20] <= 1296240.0\nentropy = 0.532\nsamples = 207\nvalue = [182, 25]"] ;
181 -> 182 ;
183 [label="X[150] <= 74138.0\nentropy = 0.371\nsamples = 196\nvalue = [182, 14]"] ;
182 -> 183 ;
184 [label="X[137] <= 6506.0\nentropy = 0.655\nsamples = 77\nvalue = [64, 13]"] ;
183 -> 184 ;
185 [label="X[135] <= 657490.0\nentropy = 0.133\nsamples = 54\nvalue = [53, 1]"] ;
184 -> 185 ;
186 [label="entropy = 0.0\nsamples = 53\nvalue = [53, 0]"] ;
185 -> 186 ;
187 [label="entropy = 0.0\nsamples = 1\nvalue = [0, 1]"] ;
185 -> 187 ;
188 [label="X[18] <= 27.0\nentropy = 0.999\nsamples = 23\nvalue = [11, 12]"] ;
184 -> 188 ;
189 [label="X[71] <= 208460.0\nentropy = 0.874\nsamples = 17\nvalue = [5, 12]"] ;
188 -> 189 ;
190 [label="entropy = 0.0\nsamples = 3\nvalue = [3, 0]"] ;
189 -> 190 ;
191 [label="X[148] <= 81921.0\nentropy = 0.592\nsamples = 14\nvalue = [2, 12]"] ;
189 -> 191 ;
192 [label="entropy = 0.0\nsamples = 11\nvalue = [0, 11]"] ;
191 -> 192 ;
193 [label="X[8] <= 10203.0\nentropy = 0.918\nsamples = 3\nvalue = [2, 1]"] ;
191 -> 193 ;
194 [label="entropy = 0.0\nsamples = 2\nvalue = [2, 0]"] ;
193 -> 194 ;
195 [label="entropy = 0.0\nsamples = 1\nvalue = [0, 1]"] ;
193 -> 195 ;
196 [label="entropy = 0.0\nsamples = 6\nvalue = [6, 0]"] ;
188 -> 196 ;
197 [label="X[35] <= 6972585.0\nentropy = 0.07\nsamples = 119\nvalue = [118, 1]"] ;
183 -> 197 ;
198 [label="entropy = 0.0\nsamples = 118\nvalue = [118, 0]"] ;
197 -> 198 ;
199 [label="entropy = 0.0\nsamples = 1\nvalue = [0, 1]"] ;
197 -> 199 ;
200 [label="entropy = 0.0\nsamples = 11\nvalue = [0, 11]"] ;
182 -> 200 ;
201 [label="X[79] <= 109180.0\nentropy = 0.75\nsamples = 42\nvalue = [9, 33]"] ;
181 -> 201 ;
202 [label="X[58] <= 427016.0\nentropy = 1.0\nsamples = 18\nvalue = [9, 9]"] ;
201 -> 202 ;
203 [label="X[28] <= 297.0\nentropy = 0.811\nsamples = 12\nvalue = [9, 3]"] ;
202 -> 203 ;
204 [label="entropy = 0.0\nsamples = 9\nvalue = [9, 0]"] ;
203 -> 204 ;
205 [label="entropy = 0.0\nsamples = 3\nvalue = [0, 3]"] ;
203 -> 205 ;
206 [label="entropy = 0.0\nsamples = 6\nvalue = [0, 6]"] ;
202 -> 206 ;
207 [label="entropy = 0.0\nsamples = 24\nvalue = [0, 24]"] ;
201 -> 207 ;
208 [label="X[114] <= 3199.0\nentropy = 0.171\nsamples = 705\nvalue = [687, 18]"] ;
180 -> 208 ;
209 [label="entropy = 0.0\nsamples = 361\nvalue = [361, 0]"] ;
208 -> 209 ;
210 [label="X[163] <= 2144218.0\nentropy = 0.296\nsamples = 344\nvalue = [326, 18]"] ;
208 -> 210 ;
211 [label="X[17] <= 21734.0\nentropy = 0.196\nsamples = 297\nvalue = [288, 9]"] ;
210 -> 211 ;
212 [label="X[99] <= 52531.0\nentropy = 0.071\nsamples = 236\nvalue = [234, 2]"] ;
211 -> 212 ;
213 [label="entropy = 0.0\nsamples = 231\nvalue = [231, 0]"] ;
212 -> 213 ;
214 [label="X[107] <= 663302.0\nentropy = 0.971\nsamples = 5\nvalue = [3, 2]"] ;
212 -> 214 ;
215 [label="entropy = 0.0\nsamples = 2\nvalue = [0, 2]"] ;
214 -> 215 ;
216 [label="entropy = 0.0\nsamples = 3\nvalue = [3, 0]"] ;
214 -> 216 ;
217 [label="X[106] <= 188669.0\nentropy = 0.514\nsamples = 61\nvalue = [54, 7]"] ;
211 -> 217 ;
218 [label="X[55] <= 1234708.0\nentropy = 0.937\nsamples = 17\nvalue = [11, 6]"] ;
217 -> 218 ;
219 [label="X[87] <= 810630.0\nentropy = 0.811\nsamples = 8\nvalue = [2, 6]"] ;
218 -> 219 ;
220 [label="entropy = 0.0\nsamples = 6\nvalue = [0, 6]"] ;
219 -> 220 ;
221 [label="entropy = 0.0\nsamples = 2\nvalue = [2, 0]"] ;
219 -> 221 ;
222 [label="entropy = 0.0\nsamples = 9\nvalue = [9, 0]"] ;
218 -> 222 ;
223 [label="X[114] <= 13376.0\nentropy = 0.156\nsamples = 44\nvalue = [43, 1]"] ;
217 -> 223 ;
224 [label="entropy = 0.0\nsamples = 43\nvalue = [43, 0]"] ;
223 -> 224 ;
225 [label="entropy = 0.0\nsamples = 1\nvalue = [0, 1]"] ;
223 -> 225 ;
226 [label="X[86] <= 106531.0\nentropy = 0.705\nsamples = 47\nvalue = [38, 9]"] ;
210 -> 226 ;
227 [label="X[18] <= 235.0\nentropy = 0.575\nsamples = 44\nvalue = [38, 6]"] ;
226 -> 227 ;
228 [label="X[12] <= 17239183.0\nentropy = 0.196\nsamples = 33\nvalue = [32, 1]"] ;
227 -> 228 ;
229 [label="entropy = 0.0\nsamples = 32\nvalue = [32, 0]"] ;
228 -> 229 ;
230 [label="entropy = 0.0\nsamples = 1\nvalue = [0, 1]"] ;
228 -> 230 ;
231 [label="X[160] <= 2411493.0\nentropy = 0.994\nsamples = 11\nvalue = [6, 5]"] ;
227 -> 231 ;
232 [label="X[39] <= 3778571.0\nentropy = 0.65\nsamples = 6\nvalue = [1, 5]"] ;
231 -> 232 ;
233 [label="entropy = 0.0\nsamples = 1\nvalue = [1, 0]"] ;
232 -> 233 ;
234 [label="entropy = 0.0\nsamples = 5\nvalue = [0, 5]"] ;
232 -> 234 ;
235 [label="entropy = 0.0\nsamples = 5\nvalue = [5, 0]"] ;
231 -> 235 ;
236 [label="entropy = 0.0\nsamples = 3\nvalue = [0, 3]"] ;
226 -> 236 ;
237 [label="X[37] <= 865782.0\nentropy = 0.934\nsamples = 1172\nvalue = [762, 410]"] ;
179 -> 237 ;
238 [label="X[21] <= 3739237.0\nentropy = 0.827\nsamples = 923\nvalue = [683, 240]"] ;
237 -> 238 ;
239 [label="X[165] <= 7234304.0\nentropy = 0.742\nsamples = 817\nvalue = [645, 172]"] ;
238 -> 239 ;
240 [label="X[41] <= 5719.0\nentropy = 0.836\nsamples = 582\nvalue = [427, 155]"] ;
239 -> 240 ;
241 [label="X[35] <= 11774.0\nentropy = 0.803\nsamples = 564\nvalue = [426, 138]"] ;
240 -> 241 ;
242 [label="X[9] <= 5270188.0\nentropy = 0.766\nsamples = 547\nvalue = [425, 122]"] ;
241 -> 242 ;
243 [label="X[148] <= 337746.0\nentropy = 0.742\nsamples = 538\nvalue = [425, 113]"] ;
242 -> 243 ;
244 [label="X[115] <= 7827541.0\nentropy = 0.7\nsamples = 513\nvalue = [416, 97]"] ;
243 -> 244 ;
245 [label="X[22] <= 22398783.0\nentropy = 0.76\nsamples = 437\nvalue = [341, 96]"] ;
244 -> 245 ;
246 [label="X[25] <= 3917394.0\nentropy = 0.995\nsamples = 48\nvalue = [22, 26]"] ;
245 -> 246 ;
247 [label="X[79] <= 80220.273\nentropy = 0.946\nsamples = 33\nvalue = [21, 12]"] ;
246 -> 247 ;
248 [label="entropy = 0.0\nsamples = 11\nvalue = [11, 0]"] ;
247 -> 248 ;
249 [label="X[99] <= 1168.337\nentropy = 0.994\nsamples = 22\nvalue = [10, 12]"] ;
247 -> 249 ;
250 [label="X[114] <= 7502.0\nentropy = 0.874\nsamples = 17\nvalue = [5, 12]"] ;
249 -> 250 ;
251 [label="X[48] <= 2.0\nentropy = 0.592\nsamples = 14\nvalue = [2, 12]"] ;
250 -> 251 ;
252 [label="entropy = 0.0\nsamples = 2\nvalue = [2, 0]"] ;
251 -> 252 ;
253 [label="entropy = 0.0\nsamples = 12\nvalue = [0, 12]"] ;
251 -> 253 ;
254 [label="entropy = 0.0\nsamples = 3\nvalue = [3, 0]"] ;
250 -> 254 ;
255 [label="entropy = 0.0\nsamples = 5\nvalue = [5, 0]"] ;
249 -> 255 ;
256 [label="X[119] <= 5560975.0\nentropy = 0.353\nsamples = 15\nvalue = [1, 14]"] ;
246 -> 256 ;
257 [label="entropy = 0.0\nsamples = 14\nvalue = [0, 14]"] ;
256 -> 257 ;
258 [label="entropy = 0.0\nsamples = 1\nvalue = [1, 0]"] ;
256 -> 258 ;
259 [label="X[95] <= 7014085.5\nentropy = 0.68\nsamples = 389\nvalue = [319, 70]"] ;
245 -> 259 ;
260 [label="X[21] <= 285990.0\nentropy = 0.62\nsamples = 363\nvalue = [307, 56]"] ;
259 -> 260 ;
261 [label="X[20] <= 12284.0\nentropy = 0.789\nsamples = 186\nvalue = [142, 44]"] ;
260 -> 261 ;
262 [label="X[102] <= 1296129.0\nentropy = 0.664\nsamples = 168\nvalue = [139, 29]"] ;
261 -> 262 ;
263 [label="X[167] <= 120715.0\nentropy = 0.982\nsamples = 38\nvalue = [22, 16]"] ;
262 -> 263 ;
264 [label="X[94] <= 39387310.0\nentropy = 0.837\nsamples = 30\nvalue = [22, 8]"] ;
263 -> 264 ;
265 [label="X[37] <= 291684.0\nentropy = 0.454\nsamples = 21\nvalue = [19, 2]"] ;
264 -> 265 ;
266 [label="entropy = 0.0\nsamples = 19\nvalue = [19, 0]"] ;
265 -> 266 ;
267 [label="entropy = 0.0\nsamples = 2\nvalue = [0, 2]"] ;
265 -> 267 ;
268 [label="X[11] <= 390206.0\nentropy = 0.918\nsamples = 9\nvalue = [3, 6]"] ;
264 -> 268 ;
269 [label="entropy = 0.0\nsamples = 3\nvalue = [3, 0]"] ;
268 -> 269 ;
270 [label="entropy = 0.0\nsamples = 6\nvalue = [0, 6]"] ;
268 -> 270 ;
271 [label="entropy = 0.0\nsamples = 8\nvalue = [0, 8]"] ;
263 -> 271 ;
272 [label="X[71] <= 546570.0\nentropy = 0.469\nsamples = 130\nvalue = [117, 13]"] ;
262 -> 272 ;
273 [label="X[47] <= 32466304.0\nentropy = 0.317\nsamples = 122\nvalue = [115, 7]"] ;
272 -> 273 ;
274 [label="X[74] <= 91950.0\nentropy = 0.082\nsamples = 98\nvalue = [97, 1]"] ;
273 -> 274 ;
275 [label="entropy = 0.0\nsamples = 1\nvalue = [0, 1]"] ;
274 -> 275 ;
276 [label="entropy = 0.0\nsamples = 97\nvalue = [97, 0]"] ;
274 -> 276 ;
277 [label="X[103] <= 16509539.0\nentropy = 0.811\nsamples = 24\nvalue = [18, 6]"] ;
273 -> 277 ;
278 [label="entropy = 0.0\nsamples = 4\nvalue = [0, 4]"] ;
277 -> 278 ;
279 [label="X[161] <= 5007188.0\nentropy = 0.469\nsamples = 20\nvalue = [18, 2]"] ;
277 -> 279 ;
280 [label="entropy = 0.0\nsamples = 16\nvalue = [16, 0]"] ;
279 -> 280 ;
281 [label="X[71] <= 318160.0\nentropy = 1.0\nsamples = 4\nvalue = [2, 2]"] ;
279 -> 281 ;
282 [label="entropy = 0.0\nsamples = 2\nvalue = [0, 2]"] ;
281 -> 282 ;
283 [label="entropy = 0.0\nsamples = 2\nvalue = [2, 0]"] ;
281 -> 283 ;
284 [label="X[80] <= 435800.031\nentropy = 0.811\nsamples = 8\nvalue = [2, 6]"] ;
272 -> 284 ;
285 [label="entropy = 0.0\nsamples = 2\nvalue = [2, 0]"] ;
284 -> 285 ;
286 [label="entropy = 0.0\nsamples = 6\nvalue = [0, 6]"] ;
284 -> 286 ;
287 [label="X[116] <= 3718717.0\nentropy = 0.65\nsamples = 18\nvalue = [3, 15]"] ;
261 -> 287 ;
288 [label="entropy = 0.0\nsamples = 15\nvalue = [0, 15]"] ;
287 -> 288 ;
289 [label="entropy = 0.0\nsamples = 3\nvalue = [3, 0]"] ;
287 -> 289 ;
290 [label="X[151] <= 79.0\nentropy = 0.358\nsamples = 177\nvalue = [165, 12]"] ;
260 -> 290 ;
291 [label="X[21] <= 1136151.0\nentropy = 0.94\nsamples = 14\nvalue = [9, 5]"] ;
290 -> 291 ;
292 [label="entropy = 0.0\nsamples = 7\nvalue = [7, 0]"] ;
291 -> 292 ;
293 [label="X[57] <= 4167.0\nentropy = 0.863\nsamples = 7\nvalue = [2, 5]"] ;
291 -> 293 ;
294 [label="entropy = 0.0\nsamples = 2\nvalue = [2, 0]"] ;
293 -> 294 ;
295 [label="entropy = 0.0\nsamples = 5\nvalue = [0, 5]"] ;
293 -> 295 ;
296 [label="X[168] <= 1.045\nentropy = 0.256\nsamples = 163\nvalue = [156, 7]"] ;
290 -> 296 ;
297 [label="X[108] <= 822663.0\nentropy = 0.2\nsamples = 161\nvalue = [156, 5]"] ;
296 -> 297 ;
298 [label="X[87] <= 6280.0\nentropy = 0.137\nsamples = 156\nvalue = [153, 3]"] ;
297 -> 298 ;
299 [label="entropy = 0.0\nsamples = 1\nvalue = [0, 1]"] ;
298 -> 299 ;
300 [label="X[152] <= 655.0\nentropy = 0.099\nsamples = 155\nvalue = [153, 2]"] ;
298 -> 300 ;
301 [label="X[132] <= 1.0\nentropy = 0.439\nsamples = 22\nvalue = [20, 2]"] ;
300 -> 301 ;
302 [label="entropy = 0.0\nsamples = 20\nvalue = [20, 0]"] ;
301 -> 302 ;
303 [label="entropy = 0.0\nsamples = 2\nvalue = [0, 2]"] ;
301 -> 303 ;
304 [label="entropy = 0.0\nsamples = 133\nvalue = [133, 0]"] ;
300 -> 304 ;
305 [label="X[16] <= 21203452.0\nentropy = 0.971\nsamples = 5\nvalue = [3, 2]"] ;
297 -> 305 ;
306 [label="entropy = 0.0\nsamples = 3\nvalue = [3, 0]"] ;
305 -> 306 ;
307 [label="entropy = 0.0\nsamples = 2\nvalue = [0, 2]"] ;
305 -> 307 ;
308 [label="entropy = 0.0\nsamples = 2\nvalue = [0, 2]"] ;
296 -> 308 ;
309 [label="X[91] <= 6.0\nentropy = 0.996\nsamples = 26\nvalue = [12, 14]"] ;
259 -> 309 ;
310 [label="entropy = 0.0\nsamples = 10\nvalue = [0, 10]"] ;
309 -> 310 ;
311 [label="X[23] <= 32790758.0\nentropy = 0.811\nsamples = 16\nvalue = [12, 4]"] ;
309 -> 311 ;
312 [label="entropy = 0.0\nsamples = 3\nvalue = [0, 3]"] ;
311 -> 312 ;
313 [label="X[163] <= 2052893.0\nentropy = 0.391\nsamples = 13\nvalue = [12, 1]"] ;
311 -> 313 ;
314 [label="entropy = 0.0\nsamples = 12\nvalue = [12, 0]"] ;
313 -> 314 ;
315 [label="entropy = 0.0\nsamples = 1\nvalue = [0, 1]"] ;
313 -> 315 ;
316 [label="X[118] <= 11641890.0\nentropy = 0.101\nsamples = 76\nvalue = [75, 1]"] ;
244 -> 316 ;
317 [label="X[78] <= 652540.0\nentropy = 1.0\nsamples = 2\nvalue = [1, 1]"] ;
316 -> 317 ;
318 [label="entropy = 0.0\nsamples = 1\nvalue = [1, 0]"] ;
317 -> 318 ;
319 [label="entropy = 0.0\nsamples = 1\nvalue = [0, 1]"] ;
317 -> 319 ;
320 [label="entropy = 0.0\nsamples = 74\nvalue = [74, 0]"] ;
316 -> 320 ;
321 [label="X[143] <= 759209.0\nentropy = 0.943\nsamples = 25\nvalue = [9, 16]"] ;
243 -> 321 ;
322 [label="X[94] <= 36954746.0\nentropy = 0.989\nsamples = 16\nvalue = [9, 7]"] ;
321 -> 322 ;
323 [label="entropy = 0.0\nsamples = 4\nvalue = [0, 4]"] ;
322 -> 323 ;
324 [label="X[76] <= 175800.0\nentropy = 0.811\nsamples = 12\nvalue = [9, 3]"] ;
322 -> 324 ;
325 [label="entropy = 0.0\nsamples = 3\nvalue = [0, 3]"] ;
324 -> 325 ;
326 [label="entropy = 0.0\nsamples = 9\nvalue = [9, 0]"] ;
324 -> 326 ;
327 [label="entropy = 0.0\nsamples = 9\nvalue = [0, 9]"] ;
321 -> 327 ;
328 [label="entropy = 0.0\nsamples = 9\nvalue = [0, 9]"] ;
242 -> 328 ;
329 [label="X[70] <= 2990546.0\nentropy = 0.323\nsamples = 17\nvalue = [1, 16]"] ;
241 -> 329 ;
330 [label="entropy = 0.0\nsamples = 1\nvalue = [1, 0]"] ;
329 -> 330 ;
331 [label="entropy = 0.0\nsamples = 16\nvalue = [0, 16]"] ;
329 -> 331 ;
332 [label="X[157] <= 22246.0\nentropy = 0.31\nsamples = 18\nvalue = [1, 17]"] ;
240 -> 332 ;
333 [label="entropy = 0.0\nsamples = 17\nvalue = [0, 17]"] ;
332 -> 333 ;
334 [label="entropy = 0.0\nsamples = 1\nvalue = [1, 0]"] ;
332 -> 334 ;
335 [label="X[66] <= 12891.0\nentropy = 0.375\nsamples = 235\nvalue = [218, 17]"] ;
239 -> 335 ;
336 [label="X[8] <= 136812.0\nentropy = 0.329\nsamples = 232\nvalue = [218, 14]"] ;
335 -> 336 ;
337 [label="X[39] <= 2383504.0\nentropy = 0.214\nsamples = 206\nvalue = [199, 7]"] ;
336 -> 337 ;
338 [label="entropy = 0.0\nsamples = 2\nvalue = [0, 2]"] ;
337 -> 338 ;
339 [label="X[59] <= 3037889.0\nentropy = 0.166\nsamples = 204\nvalue = [199, 5]"] ;
337 -> 339 ;
340 [label="X[13] <= 104886.0\nentropy = 0.084\nsamples = 191\nvalue = [189, 2]"] ;
339 -> 340 ;
341 [label="entropy = 0.0\nsamples = 1\nvalue = [0, 1]"] ;
340 -> 341 ;
342 [label="X[17] <= 350786.0\nentropy = 0.047\nsamples = 190\nvalue = [189, 1]"] ;
340 -> 342 ;
343 [label="entropy = 0.0\nsamples = 187\nvalue = [187, 0]"] ;
342 -> 343 ;
344 [label="X[120] <= 121497.0\nentropy = 0.918\nsamples = 3\nvalue = [2, 1]"] ;
342 -> 344 ;
345 [label="entropy = 0.0\nsamples = 2\nvalue = [2, 0]"] ;
344 -> 345 ;
346 [label="entropy = 0.0\nsamples = 1\nvalue = [0, 1]"] ;
344 -> 346 ;
347 [label="X[84] <= 339011.5\nentropy = 0.779\nsamples = 13\nvalue = [10, 3]"] ;
339 -> 347 ;
348 [label="entropy = 0.0\nsamples = 3\nvalue = [0, 3]"] ;
347 -> 348 ;
349 [label="entropy = 0.0\nsamples = 10\nvalue = [10, 0]"] ;
347 -> 349 ;
350 [label="X[38] <= 153865.0\nentropy = 0.84\nsamples = 26\nvalue = [19, 7]"] ;
336 -> 350 ;
351 [label="entropy = 0.0\nsamples = 4\nvalue = [0, 4]"] ;
350 -> 351 ;
352 [label="X[147] <= 1633858.0\nentropy = 0.575\nsamples = 22\nvalue = [19, 3]"] ;
350 -> 352 ;
353 [label="X[117] <= 1338292.0\nentropy = 0.286\nsamples = 20\nvalue = [19, 1]"] ;
352 -> 353 ;
354 [label="entropy = 0.0\nsamples = 1\nvalue = [0, 1]"] ;
353 -> 354 ;
355 [label="entropy = 0.0\nsamples = 19\nvalue = [19, 0]"] ;
353 -> 355 ;
356 [label="entropy = 0.0\nsamples = 2\nvalue = [0, 2]"] ;
352 -> 356 ;
357 [label="entropy = 0.0\nsamples = 3\nvalue = [0, 3]"] ;
335 -> 357 ;
358 [label="X[118] <= 25392677.0\nentropy = 0.941\nsamples = 106\nvalue = [38, 68]"] ;
238 -> 358 ;
359 [label="X[69] <= 11390773.0\nentropy = 0.557\nsamples = 77\nvalue = [10, 67]"] ;
358 -> 359 ;
360 [label="X[79] <= 15380.0\nentropy = 0.133\nsamples = 54\nvalue = [1, 53]"] ;
359 -> 360 ;
361 [label="X[63] <= 1244.763\nentropy = 1.0\nsamples = 2\nvalue = [1, 1]"] ;
360 -> 361 ;
362 [label="entropy = 0.0\nsamples = 1\nvalue = [0, 1]"] ;
361 -> 362 ;
363 [label="entropy = 0.0\nsamples = 1\nvalue = [1, 0]"] ;
361 -> 363 ;
364 [label="entropy = 0.0\nsamples = 52\nvalue = [0, 52]"] ;
360 -> 364 ;
365 [label="X[31] <= 3823.0\nentropy = 0.966\nsamples = 23\nvalue = [9, 14]"] ;
359 -> 365 ;
366 [label="X[62] <= 54841540.0\nentropy = 0.672\nsamples = 17\nvalue = [3, 14]"] ;
365 -> 366 ;
367 [label="entropy = 0.0\nsamples = 2\nvalue = [2, 0]"] ;
366 -> 367 ;
368 [label="X[101] <= 2181775.0\nentropy = 0.353\nsamples = 15\nvalue = [1, 14]"] ;
366 -> 368 ;
369 [label="entropy = 0.0\nsamples = 14\nvalue = [0, 14]"] ;
368 -> 369 ;
370 [label="entropy = 0.0\nsamples = 1\nvalue = [1, 0]"] ;
368 -> 370 ;
371 [label="entropy = 0.0\nsamples = 6\nvalue = [6, 0]"] ;
365 -> 371 ;
372 [label="X[20] <= 34176968.0\nentropy = 0.216\nsamples = 29\nvalue = [28, 1]"] ;
358 -> 372 ;
373 [label="entropy = 0.0\nsamples = 28\nvalue = [28, 0]"] ;
372 -> 373 ;
374 [label="entropy = 0.0\nsamples = 1\nvalue = [0, 1]"] ;
372 -> 374 ;
375 [label="X[20] <= 931799.0\nentropy = 0.901\nsamples = 249\nvalue = [79, 170]"] ;
237 -> 375 ;
376 [label="X[20] <= 13671.0\nentropy = 0.845\nsamples = 231\nvalue = [63, 168]"] ;
375 -> 376 ;
377 [label="X[57] <= 2520634.0\nentropy = 0.968\nsamples = 147\nvalue = [58, 89]"] ;
376 -> 377 ;
378 [label="X[42] <= 22201.0\nentropy = 0.722\nsamples = 25\nvalue = [20, 5]"] ;
377 -> 378 ;
379 [label="entropy = 0.0\nsamples = 3\nvalue = [0, 3]"] ;
378 -> 379 ;
380 [label="X[120] <= 103664.0\nentropy = 0.439\nsamples = 22\nvalue = [20, 2]"] ;
378 -> 380 ;
381 [label="entropy = 0.0\nsamples = 18\nvalue = [18, 0]"] ;
380 -> 381 ;
382 [label="X[55] <= 2471294.0\nentropy = 1.0\nsamples = 4\nvalue = [2, 2]"] ;
380 -> 382 ;
383 [label="entropy = 0.0\nsamples = 2\nvalue = [0, 2]"] ;
382 -> 383 ;
384 [label="entropy = 0.0\nsamples = 2\nvalue = [2, 0]"] ;
382 -> 384 ;
385 [label="X[106] <= 820495.0\nentropy = 0.895\nsamples = 122\nvalue = [38, 84]"] ;
377 -> 385 ;
386 [label="X[42] <= 95380.0\nentropy = 0.752\nsamples = 102\nvalue = [22, 80]"] ;
385 -> 386 ;
387 [label="X[40] <= 2873930.0\nentropy = 0.943\nsamples = 61\nvalue = [22, 39]"] ;
386 -> 387 ;
388 [label="X[37] <= 7532417.0\nentropy = 0.998\nsamples = 42\nvalue = [22, 20]"] ;
387 -> 388 ;
389 [label="X[107] <= 93693.0\nentropy = 0.65\nsamples = 18\nvalue = [15, 3]"] ;
388 -> 389 ;
390 [label="entropy = 0.0\nsamples = 14\nvalue = [14, 0]"] ;
389 -> 390 ;
391 [label="X[11] <= 12632403.0\nentropy = 0.811\nsamples = 4\nvalue = [1, 3]"] ;
389 -> 391 ;
392 [label="entropy = 0.0\nsamples = 3\nvalue = [0, 3]"] ;
391 -> 392 ;
393 [label="entropy = 0.0\nsamples = 1\nvalue = [1, 0]"] ;
391 -> 393 ;
394 [label="X[14] <= 457889.0\nentropy = 0.871\nsamples = 24\nvalue = [7, 17]"] ;
388 -> 394 ;
395 [label="X[116] <= 1718069.0\nentropy = 0.61\nsamples = 20\nvalue = [3, 17]"] ;
394 -> 395 ;
396 [label="entropy = 0.0\nsamples = 2\nvalue = [2, 0]"] ;
395 -> 396 ;
397 [label="X[49] <= 3928.0\nentropy = 0.31\nsamples = 18\nvalue = [1, 17]"] ;
395 -> 397 ;
398 [label="entropy = 0.0\nsamples = 17\nvalue = [0, 17]"] ;
397 -> 398 ;
399 [label="entropy = 0.0\nsamples = 1\nvalue = [1, 0]"] ;
397 -> 399 ;
400 [label="entropy = 0.0\nsamples = 4\nvalue = [4, 0]"] ;
394 -> 400 ;
401 [label="entropy = 0.0\nsamples = 19\nvalue = [0, 19]"] ;
387 -> 401 ;
402 [label="entropy = 0.0\nsamples = 41\nvalue = [0, 41]"] ;
386 -> 402 ;
403 [label="X[54] <= 5276926.0\nentropy = 0.722\nsamples = 20\nvalue = [16, 4]"] ;
385 -> 403 ;
404 [label="X[160] <= 12299641.0\nentropy = 0.722\nsamples = 5\nvalue = [1, 4]"] ;
403 -> 404 ;
405 [label="entropy = 0.0\nsamples = 4\nvalue = [0, 4]"] ;
404 -> 405 ;
406 [label="entropy = 0.0\nsamples = 1\nvalue = [1, 0]"] ;
404 -> 406 ;
407 [label="entropy = 0.0\nsamples = 15\nvalue = [15, 0]"] ;
403 -> 407 ;
408 [label="X[78] <= 140230.0\nentropy = 0.326\nsamples = 84\nvalue = [5, 79]"] ;
376 -> 408 ;
409 [label="entropy = 0.0\nsamples = 3\nvalue = [3, 0]"] ;
408 -> 409 ;
410 [label="X[158] <= 15759881.0\nentropy = 0.167\nsamples = 81\nvalue = [2, 79]"] ;
408 -> 410 ;
411 [label="entropy = 0.0\nsamples = 72\nvalue = [0, 72]"] ;
410 -> 411 ;
412 [label="X[61] <= 5258.0\nentropy = 0.764\nsamples = 9\nvalue = [2, 7]"] ;
410 -> 412 ;
413 [label="entropy = 0.0\nsamples = 7\nvalue = [0, 7]"] ;
412 -> 413 ;
414 [label="entropy = 0.0\nsamples = 2\nvalue = [2, 0]"] ;
412 -> 414 ;
415 [label="X[87] <= 345950.0\nentropy = 0.503\nsamples = 18\nvalue = [16, 2]"] ;
375 -> 415 ;
416 [label="X[121] <= 6.0\nentropy = 0.918\nsamples = 3\nvalue = [1, 2]"] ;
415 -> 416 ;
417 [label="entropy = 0.0\nsamples = 2\nvalue = [0, 2]"] ;
416 -> 417 ;
418 [label="entropy = 0.0\nsamples = 1\nvalue = [1, 0]"] ;
416 -> 418 ;
419 [label="entropy = 0.0\nsamples = 15\nvalue = [15, 0]"] ;
415 -> 419 ;
420 [label="X[37] <= 12489.0\nentropy = 0.464\nsamples = 234\nvalue = [23, 211]"] ;
178 -> 420 ;
421 [label="X[163] <= 2112983.0\nentropy = 0.255\nsamples = 210\nvalue = [9, 201]"] ;
420 -> 421 ;
422 [label="X[40] <= 3508833.0\nentropy = 0.74\nsamples = 43\nvalue = [9, 34]"] ;
421 -> 422 ;
423 [label="entropy = 0.0\nsamples = 5\nvalue = [5, 0]"] ;
422 -> 423 ;
424 [label="X[7] <= 8316.0\nentropy = 0.485\nsamples = 38\nvalue = [4, 34]"] ;
422 -> 424 ;
425 [label="X[95] <= 1626510.188\nentropy = 0.946\nsamples = 11\nvalue = [4, 7]"] ;
424 -> 425 ;
426 [label="entropy = 0.0\nsamples = 4\nvalue = [4, 0]"] ;
425 -> 426 ;
427 [label="entropy = 0.0\nsamples = 7\nvalue = [0, 7]"] ;
425 -> 427 ;
428 [label="entropy = 0.0\nsamples = 27\nvalue = [0, 27]"] ;
424 -> 428 ;
429 [label="entropy = 0.0\nsamples = 167\nvalue = [0, 167]"] ;
421 -> 429 ;
430 [label="X[60] <= 154895.0\nentropy = 0.98\nsamples = 24\nvalue = [14, 10]"] ;
420 -> 430 ;
431 [label="entropy = 0.0\nsamples = 5\nvalue = [0, 5]"] ;
430 -> 431 ;
432 [label="X[78] <= 293360.0\nentropy = 0.831\nsamples = 19\nvalue = [14, 5]"] ;
430 -> 432 ;
433 [label="entropy = 0.0\nsamples = 3\nvalue = [0, 3]"] ;
432 -> 433 ;
434 [label="X[126] <= 11345967.0\nentropy = 0.544\nsamples = 16\nvalue = [14, 2]"] ;
432 -> 434 ;
435 [label="entropy = 0.0\nsamples = 14\nvalue = [14, 0]"] ;
434 -> 435 ;
436 [label="entropy = 0.0\nsamples = 2\nvalue = [0, 2]"] ;
434 -> 436 ;
}
